<?xml version="1.0"?>
<opencv_storage>
<stage11>
  <maxWeakCount>21</maxWeakCount>
  <stageThreshold>-5.5637550354003906e-01</stageThreshold>
  <weakClassifiers>
    <_>
      <internalNodes>
        0 -1 38341 -4.4353164732456207e-02</internalNodes>
      <leafValues>
        -7.1604937314987183e-01 7.8949230909347534e-01</leafValues></_>
    <_>
      <internalNodes>
        0 -1 181483 -2.1392468363046646e-02</internalNodes>
      <leafValues>
        -5.4200422763824463e-01 3.7999340891838074e-01</leafValues></_>
    <_>
      <internalNodes>
        0 -1 136287 -5.0211083143949509e-03</internalNodes>
      <leafValues>
        3.1987231969833374e-01 -3.1884750723838806e-01</leafValues></_>
    <_>
      <internalNodes>
        0 -1 121 -1.8353059887886047e-02</internalNodes>
      <leafValues>
        4.9477303028106689e-01 -2.1143840253353119e-01</leafValues></_>
    <_>
      <internalNodes>
        0 -1 135019 2.0101707195863128e-04</internalNodes>
      <leafValues>
        1.4841626584529877e-01 -7.0758765935897827e-01</leafValues></_>
    <_>
      <internalNodes>
        0 -1 156541 -1.6004306962713599e-04</internalNodes>
      <leafValues>
        -5.3882884979248047e-01 1.6124588251113892e-01</leafValues></_>
    <_>
      <internalNodes>
        0 -1 24714 1.4288153033703566e-03</internalNodes>
      <leafValues>
        -2.6033714413642883e-01 4.6475747227668762e-01</leafValues></_>
    <_>
      <internalNodes>
        0 -1 90207 -3.9375193417072296e-02</internalNodes>
      <leafValues>
        4.1461941599845886e-01 -2.9932168126106262e-01</leafValues></_>
    <_>
      <internalNodes>
        0 -1 155798 9.0539490338414907e-04</internalNodes>
      <leafValues>
        1.3235187530517578e-01 -7.8554058074951172e-01</leafValues></_>
    <_>
      <internalNodes>
        0 -1 146470 2.3020994849503040e-03</internalNodes>
      <leafValues>
        -1.9792354106903076e-01 5.5499410629272461e-01</leafValues></_>
    <_>
      <internalNodes>
        0 -1 168597 5.8051251107826829e-04</internalNodes>
      <leafValues>
        -4.0313169360160828e-01 2.4473705887794495e-01</leafValues></_>
    <_>
      <internalNodes>
        0 -1 71415 -5.7421442121267319e-02</internalNodes>
      <leafValues>
        -8.0473428964614868e-01 1.2297035008668900e-01</leafValues></_>
    <_>
      <internalNodes>
        0 -1 69161 7.7135902829468250e-03</internalNodes>
      <leafValues>
        -2.1579298377037048e-01 4.8223075270652771e-01</leafValues></_>
    <_>
      <internalNodes>
        0 -1 17320 -9.8141450434923172e-03</internalNodes>
      <leafValues>
        3.9653196930885315e-01 -2.5969809293746948e-01</leafValues></_>
    <_>
      <internalNodes>
        0 -1 128522 1.8510447989683598e-04</internalNodes>
      <leafValues>
        1.7263180017471313e-01 -5.1684176921844482e-01</leafValues></_>
    <_>
      <internalNodes>
        0 -1 189913 -2.1033091470599174e-03</internalNodes>
      <leafValues>
        5.9126663208007812e-01 -1.6210789978504181e-01</leafValues></_>
    <_>
      <internalNodes>
        0 -1 184873 -1.6212402842938900e-03</internalNodes>
      <leafValues>
        -6.6564917564392090e-01 1.4850318431854248e-01</leafValues></_>
    <_>
      <internalNodes>
        0 -1 166939 2.0567118190228939e-03</internalNodes>
      <leafValues>
        -1.5726958215236664e-01 6.2172323465347290e-01</leafValues></_>
    <_>
      <internalNodes>
        0 -1 171939 -2.4109418154694140e-04</internalNodes>
      <leafValues>
        4.7481682896614075e-01 -2.0568867027759552e-01</leafValues></_>
    <_>
      <internalNodes>
        0 -1 164335 1.5219586202874780e-04</internalNodes>
      <leafValues>
        -3.6489674448966980e-01 2.4369589984416962e-01</leafValues></_>
    <_>
      <internalNodes>
        0 -1 123886 3.2871164381504059e-02</internalNodes>
      <leafValues>
        9.6143290400505066e-02 -9.1239631175994873e-01</leafValues></_></weakClassifiers></stage11>
</opencv_storage>
