<?xml version="1.0"?>
<opencv_storage>
<stage3>
  <maxWeakCount>10</maxWeakCount>
  <stageThreshold>-4.7252807021141052e-01</stageThreshold>
  <weakClassifiers>
    <_>
      <internalNodes>
        0 -1 106901 8.7182864081114531e-04</internalNodes>
      <leafValues>
        8.1570452451705933e-01 -8.5654008388519287e-01</leafValues></_>
    <_>
      <internalNodes>
        0 -1 78971 2.9245711863040924e-02</internalNodes>
      <leafValues>
        -3.9844927191734314e-01 5.7917004823684692e-01</leafValues></_>
    <_>
      <internalNodes>
        0 -1 125595 -9.7788907587528229e-03</internalNodes>
      <leafValues>
        -8.4704470634460449e-01 2.3349174857139587e-01</leafValues></_>
    <_>
      <internalNodes>
        0 -1 102130 2.2303629666566849e-02</internalNodes>
      <leafValues>
        -3.5006070137023926e-01 5.8819425106048584e-01</leafValues></_>
    <_>
      <internalNodes>
        0 -1 180954 -7.1231683250516653e-04</internalNodes>
      <leafValues>
        3.1729215383529663e-01 -5.3981345891952515e-01</leafValues></_>
    <_>
      <internalNodes>
        0 -1 145704 1.0369915980845690e-04</internalNodes>
      <leafValues>
        2.3645973205566406e-01 -7.4433541297912598e-01</leafValues></_>
    <_>
      <internalNodes>
        0 -1 190051 -2.8998535126447678e-03</internalNodes>
      <leafValues>
        4.8631948232650757e-01 -3.8709262013435364e-01</leafValues></_>
    <_>
      <internalNodes>
        0 -1 111220 5.7313614524900913e-04</internalNodes>
      <leafValues>
        1.6933214664459229e-01 -9.0552407503128052e-01</leafValues></_>
    <_>
      <internalNodes>
        0 -1 32089 -8.0099515616893768e-03</internalNodes>
      <leafValues>
        4.4396555423736572e-01 -3.9375722408294678e-01</leafValues></_>
    <_>
      <internalNodes>
        0 -1 136335 -6.2108028214424849e-04</internalNodes>
      <leafValues>
        3.1129527091979980e-01 -5.1400446891784668e-01</leafValues></_></weakClassifiers></stage3>
</opencv_storage>
