<?xml version="1.0"?>
<opencv_storage>
<stage10>
  <maxWeakCount>19</maxWeakCount>
  <stageThreshold>-6.8784248828887939e-01</stageThreshold>
  <weakClassifiers>
    <_>
      <internalNodes>
        0 -1 47456 -3.7163072824478149e-01</internalNodes>
      <leafValues>
        -7.9562044143676758e-01 7.8478336334228516e-01</leafValues></_>
    <_>
      <internalNodes>
        0 -1 132962 4.7678127884864807e-04</internalNodes>
      <leafValues>
        3.9303198456764221e-01 -6.8885368108749390e-01</leafValues></_>
    <_>
      <internalNodes>
        0 -1 181307 -5.0729385111480951e-04</internalNodes>
      <leafValues>
        2.8372630476951599e-01 -3.9128804206848145e-01</leafValues></_>
    <_>
      <internalNodes>
        0 -1 137766 5.3289957577362657e-04</internalNodes>
      <leafValues>
        1.5446671843528748e-01 -7.0366472005844116e-01</leafValues></_>
    <_>
      <internalNodes>
        0 -1 101694 2.8032399713993073e-03</internalNodes>
      <leafValues>
        -3.9686432480812073e-01 2.8463593125343323e-01</leafValues></_>
    <_>
      <internalNodes>
        0 -1 136675 -3.0745784169994295e-04</internalNodes>
      <leafValues>
        2.5870728492736816e-01 -4.4650420546531677e-01</leafValues></_>
    <_>
      <internalNodes>
        0 -1 128655 -6.1483355239033699e-04</internalNodes>
      <leafValues>
        1.7244602739810944e-01 -6.3856083154678345e-01</leafValues></_>
    <_>
      <internalNodes>
        0 -1 148436 4.2900920379906893e-04</internalNodes>
      <leafValues>
        8.9839898049831390e-02 -9.1476726531982422e-01</leafValues></_>
    <_>
      <internalNodes>
        0 -1 92107 2.9272115789353848e-03</internalNodes>
      <leafValues>
        -2.8364428877830505e-01 3.8048300147056580e-01</leafValues></_>
    <_>
      <internalNodes>
        0 -1 90111 1.1806791648268700e-02</internalNodes>
      <leafValues>
        9.3803264200687408e-02 -9.2569535970687866e-01</leafValues></_>
    <_>
      <internalNodes>
        0 -1 64521 -4.8354389145970345e-03</internalNodes>
      <leafValues>
        -8.5656839609146118e-01 8.1776790320873260e-02</leafValues></_>
    <_>
      <internalNodes>
        0 -1 26463 -1.7264253692701459e-03</internalNodes>
      <leafValues>
        5.1313900947570801e-01 -2.1384362876415253e-01</leafValues></_>
    <_>
      <internalNodes>
        0 -1 24721 1.3643801212310791e-03</internalNodes>
      <leafValues>
        -2.9065445065498352e-01 4.3472099304199219e-01</leafValues></_>
    <_>
      <internalNodes>
        0 -1 169197 -3.2677256967872381e-05</internalNodes>
      <leafValues>
        2.3862086236476898e-01 -4.6856200695037842e-01</leafValues></_>
    <_>
      <internalNodes>
        0 -1 154877 -1.5525845810770988e-03</internalNodes>
      <leafValues>
        3.4613078832626343e-01 -2.9560309648513794e-01</leafValues></_>
    <_>
      <internalNodes>
        0 -1 165391 1.0017177090048790e-02</internalNodes>
      <leafValues>
        -1.7152269184589386e-01 6.0830402374267578e-01</leafValues></_>
    <_>
      <internalNodes>
        0 -1 138137 3.8890563882887363e-04</internalNodes>
      <leafValues>
        1.5967535972595215e-01 -7.5483649969100952e-01</leafValues></_>
    <_>
      <internalNodes>
        0 -1 181500 -2.7789152227342129e-04</internalNodes>
      <leafValues>
        2.2068729996681213e-01 -4.1315394639968872e-01</leafValues></_>
    <_>
      <internalNodes>
        0 -1 138791 -9.4587920466437936e-04</internalNodes>
      <leafValues>
        4.9956741929054260e-01 -2.1037515997886658e-01</leafValues></_></weakClassifiers></stage10>
</opencv_storage>
