<?xml version="1.0"?>
<opencv_storage>
<stage9>
  <maxWeakCount>19</maxWeakCount>
  <stageThreshold>-5.4369467496871948e-01</stageThreshold>
  <weakClassifiers>
    <_>
      <internalNodes>
        0 -1 120975 3.0141540337353945e-03</internalNodes>
      <leafValues>
        7.8269267082214355e-01 -9.4915252923965454e-01</leafValues></_>
    <_>
      <internalNodes>
        0 -1 85472 4.9872620729729533e-04</internalNodes>
      <leafValues>
        3.7963482737541199e-01 -7.6700758934020996e-01</leafValues></_>
    <_>
      <internalNodes>
        0 -1 169330 2.5938258040696383e-03</internalNodes>
      <leafValues>
        -4.5557349920272827e-01 2.7306890487670898e-01</leafValues></_>
    <_>
      <internalNodes>
        0 -1 185160 1.0872177779674530e-02</internalNodes>
      <leafValues>
        -3.1621971726417542e-01 3.7777599692344666e-01</leafValues></_>
    <_>
      <internalNodes>
        0 -1 190052 -5.1531698554754257e-03</internalNodes>
      <leafValues>
        4.8408108949661255e-01 -2.6126554608345032e-01</leafValues></_>
    <_>
      <internalNodes>
        0 -1 134259 -9.1340148355811834e-04</internalNodes>
      <leafValues>
        -5.2669948339462280e-01 2.1014760434627533e-01</leafValues></_>
    <_>
      <internalNodes>
        0 -1 130060 -6.1633773148059845e-03</internalNodes>
      <leafValues>
        4.4544115662574768e-01 -2.7292555570602417e-01</leafValues></_>
    <_>
      <internalNodes>
        0 -1 31518 -9.0977028012275696e-03</internalNodes>
      <leafValues>
        5.3212249279022217e-01 -2.0838241279125214e-01</leafValues></_>
    <_>
      <internalNodes>
        0 -1 58741 6.4872199436649680e-04</internalNodes>
      <leafValues>
        -2.1533027291297913e-01 4.9070051312446594e-01</leafValues></_>
    <_>
      <internalNodes>
        0 -1 124889 9.8967179656028748e-04</internalNodes>
      <leafValues>
        1.3053379952907562e-01 -8.6712801456451416e-01</leafValues></_>
    <_>
      <internalNodes>
        0 -1 133135 -7.8107407316565514e-03</internalNodes>
      <leafValues>
        1.2285846471786499e-01 -7.1961277723312378e-01</leafValues></_>
    <_>
      <internalNodes>
        0 -1 168861 2.4592719273641706e-04</internalNodes>
      <leafValues>
        -5.4309445619583130e-01 2.0535492897033691e-01</leafValues></_>
    <_>
      <internalNodes>
        0 -1 40628 2.0253448747098446e-03</internalNodes>
      <leafValues>
        -2.0724207162857056e-01 5.3640079498291016e-01</leafValues></_>
    <_>
      <internalNodes>
        0 -1 22793 -2.0103906281292439e-03</internalNodes>
      <leafValues>
        2.6045370101928711e-01 -4.5527803897857666e-01</leafValues></_>
    <_>
      <internalNodes>
        0 -1 63940 3.1169189605861902e-04</internalNodes>
      <leafValues>
        1.5011525154113770e-01 -7.1342712640762329e-01</leafValues></_>
    <_>
      <internalNodes>
        0 -1 106084 -2.1598063409328461e-02</internalNodes>
      <leafValues>
        -8.5380429029464722e-01 1.0523480176925659e-01</leafValues></_>
    <_>
      <internalNodes>
        0 -1 154612 1.3121836818754673e-03</internalNodes>
      <leafValues>
        -3.4155279397964478e-01 2.9597231745719910e-01</leafValues></_>
    <_>
      <internalNodes>
        0 -1 85064 -1.6356257256120443e-03</internalNodes>
      <leafValues>
        1.6042450070381165e-01 -6.7916667461395264e-01</leafValues></_>
    <_>
      <internalNodes>
        0 -1 189066 -1.4507329324260354e-03</internalNodes>
      <leafValues>
        4.8097795248031616e-01 -2.3123303055763245e-01</leafValues></_></weakClassifiers></stage9>
</opencv_storage>
